{"learner":{"attributes":{"scikit_learn":"{\"_estimator_type\": \"regressor\"}"},"feature_names":[],"feature_types":[],"gradient_booster":{"model":{"gbtree_model_param":{"num_parallel_tree":"1","num_trees":"50"},"iteration_indptr":[0,1,2,3,4,5,6,7,8,9,10,11,12,13,14,15,16,17,18,19,20,21,22,23,24,25,26,27,28,29,30,31,32,33,34,35,36,37,38,39,40,41,42,43,44,45,46,47,48,49,50],"tree_info":[0,0,0,0,0,0,0,0,0,0,0,0,0,0,0,0,0,0,0,0,0,0,0,0,0,0,0,0,0,0,0,0,0,0,0,0,0,0,0,0,0,0,0,0,0,0,0,0,0,0],"trees":[{"base_weights":[2.2661568E-6,-7.2157164E0,1.1184366E1,-1.1138331E1,4.75795E0,4.6433144E0,2.1776564E1,-1.5410365E0,1.220089E-1,-4.245467E-2,8.8359517E-1,-2.5061488E-1,8.5757446E-1,-5.9814837E-2,2.3417482E0],"categories":[],"categories_nodes":[],"categories_segments":[],"categories_sizes":[],"default_left":[0,0,0,0,0,0,0,0,0,0,0,0,0,0,0],"id":0,"left_children":[1,3,5,7,9,11,13,-1,-1,-1,-1,-1,-1,-1,-1],"loss_changes":[8.231729E3,2.9650168E3,2.670249E3,2.5001938E3,3.4189893E2,7.524761E2,5.647329E2,0E0,0E0,0E0,0E0,0E0,0E0,0E0,0E0],"parents":[2147483647,0,0,1,1,2,2,3,3,4,4,5,5,6,6],"right_children":[2,4,6,8,10,12,14,-1,-1,-1,-1,-1,-1,-1,-1],"split_conditions":[6.2939864E-1,7.2821635E-1,6.9701576E-1,7.616196E-1,6.3340086E-1,1.9967379E-1,1.8221825E-2,-1.5410365E0,1.220089E-1,-4.245467E-2,8.8359517E-1,-2.5061488E-1,8.5757446E-1,-5.9814837E-2,2.3417482E0],"split_indices":[0,3,2,1,2,2,5,0,0,0,0,0,0,0,0],"split_type":[0,0,0,0,0,0,0,0,0,0,0,0,0,0,0],"sum_hessian":[1E2,6.1E1,3.9E1,4.6E1,1.5E1,2.5E1,1.4E1,3.4E1,1.2E1,7E0,8E0,9E0,1.6E1,1E0,1.3E1],"tree_param":{"num_deleted":"0","num_feature":"6","num_nodes":"15","size_leaf_vector":"1"}},{"base_weights":[2.2883803E-2,-6.503464E0,1.0138151E1,-1.6198675E1,-1.8428204E0,4.2023287E0,1.9751034E1,-2.0885532E0,-4.5108673E-1,-7.4399513E-1,5.6188154E-1,-2.2805928E-1,7.768616E-1,-5.6824114E-2,2.1242998E0],"categories":[],"categories_nodes":[],"categories_segments":[],"categories_sizes":[],"default_left":[0,0,0,0,0,0,0,0,0,0,0,0,0,0,0],"id":1,"left_children":[1,3,5,7,9,11,13,-1,-1,-1,-1,-1,-1,-1,-1],"loss_changes":[6.7335244E3,2.771676E3,2.1994146E3,1.0013696E3,1.837645E3,6.18836E2,4.6680615E2,0E0,0E0,0E0,0E0,0E0,0E0,0E0,0E0],"parents":[2147483647,0,0,1,1,2,2,3,3,4,4,5,5,6,6],"right_children":[2,4,6,8,10,12,14,-1,-1,-1,-1,-1,-1,-1,-1],"split_conditions":[6.2939864E-1,2.9321077E-1,6.9701576E-1,7.616196E-1,6.0617465E-1,1.9967379E-1,1.8221825E-2,-2.0885532E0,-4.5108673E-1,-7.4399513E-1,5.6188154E-1,-2.2805928E-1,7.768616E-1,-5.6824114E-2,2.1242998E0],"split_indices":[0,2,2,1,1,2,5,0,0,0,0,0,0,0,0],"split_type":[0,0,0,0,0,0,0,0,0,0,0,0,0,0,0],"sum_hessian":[1E2,6.1E1,3.9E1,1.9E1,4.2E1,2.5E1,1.4E1,1.3E1,6E0,2.4E1,1.8E1,9E0,1.6E1,1E0,1.3E1],"tree_param":{"num_deleted":"0","num_feature":"6","num_nodes":"15","size_leaf_vector":"1"}},{"base_weights":[1.9551286E-2,-5.8970165E0,9.189743E0,-1.0135972E1,2.8617039E0,3.8032022E0,1.7913763E1,-1.6161035E0,-3.924049E-1,2.928027E-3,1.1919603E0,-2.0753407E-1,7.0374507E-1,-5.3982925E-2,1.9270438E0],"categories":[],"categories_nodes":[],"categories_segments":[],"categories_sizes":[],"default_left":[0,0,0,0,0,0,0,0,0,0,0,0,0,0,0],"id":2,"left_children":[1,3,5,7,9,11,13,-1,-1,-1,-1,-1,-1,-1,-1],"loss_changes":[5.534054E3,2.330931E3,1.8115625E3,1.5085273E3,5.384229E2,5.0893448E2,3.8593506E2,0E0,0E0,0E0,0E0,0E0,0E0,0E0,0E0],"parents":[2147483647,0,0,1,1,2,2,3,3,4,4,5,5,6,6],"right_children":[2,4,6,8,10,12,14,-1,-1,-1,-1,-1,-1,-1,-1],"split_conditions":[6.2939864E-1,6.9093776E-1,6.9701576E-1,5.107473E-1,9.6217257E-1,1.9967379E-1,1.8221825E-2,-1.6161035E0,-3.924049E-1,2.928027E-3,1.1919603E0,-2.0753407E-1,7.0374507E-1,-5.3982925E-2,1.9270438E0],"split_indices":[0,2,2,3,2,2,5,0,0,0,0,0,0,0,0],"split_type":[0,0,0,0,0,0,0,0,0,0,0,0,0,0,0],"sum_hessian":[1E2,6.1E1,3.9E1,4.1E1,2E1,2.5E1,1.4E1,2E1,2.1E1,1.6E1,4E0,9E0,1.6E1,1E0,1.3E1],"tree_param":{"num_deleted":"0","num_feature":"6","num_nodes":"15","size_leaf_vector":"1"}},{"base_weights":[3.2999113E-2,-5.3204384E0,8.330003E0,-1.3782339E1,-1.2609395E0,3.4419687E0,1.6247261E1,-1.7882527E0,-3.6130604E-1,-6.194745E-1,5.297274E-1,-1.8885593E-1,6.375105E-1,-5.1283646E-2,1.7481043E0],"categories":[],"categories_nodes":[],"categories_segments":[],"categories_sizes":[],"default_left":[0,0,0,0,0,0,0,0,0,0,0,0,0,0,0],"id":3,"left_children":[1,3,5,7,9,11,13,-1,-1,-1,-1,-1,-1,-1,-1],"loss_changes":[4.530486E3,2.1123884E3,1.4920703E3,7.6930786E2,1.4241641E3,4.1855405E2,3.191394E2,0E0,0E0,0E0,0E0,0E0,0E0,0E0,0E0],"parents":[2147483647,0,0,1,1,2,2,3,3,4,4,5,5,6,6],"right_children":[2,4,6,8,10,12,14,-1,-1,-1,-1,-1,-1,-1,-1],"split_conditions":[6.2939864E-1,2.9321077E-1,6.9701576E-1,7.616196E-1,6.0617465E-1,1.9967379E-1,1.8221825E-2,-1.7882527E0,-3.6130604E-1,-6.194745E-1,5.297274E-1,-1.8885593E-1,6.375105E-1,-5.1283646E-2,1.7481043E0],"split_indices":[0,2,2,1,1,2,5,0,0,0,0,0,0,0,0],"split_type":[0,0,0,0,0,0,0,0,0,0,0,0,0,0,0],"sum_hessian":[1E2,6.1E1,3.9E1,1.9E1,4.2E1,2.5E1,1.4E1,1.3E1,6E0,2.4E1,1.8E1,9E0,1.6E1,1E0,1.3E1],"tree_param":{"num_deleted":"0","num_feature":"6","num_nodes":"15","size_leaf_vector":"1"}},{"base_weights":[2.877073E-2,-4.8245106E0,7.5506377E0,-7.858193E0,5.204906E0,-8.381577E-2,1.1664721E1,-1.3894646E0,-3.050203E-1,4.0473748E-2,9.354462E-1,-7.5915897E-1,1.6551948E-1,5.6190246E-1,1.5092093E0],"categories":[],"categories_nodes":[],"categories_segments":[],"categories_sizes":[],"default_left":[0,0,0,0,0,0,0,0,0,0,0,0,0,0,0],"id":4,"left_children":[1,3,5,7,9,11,13,-1,-1,-1,-1,-1,-1,-1,-1],"loss_changes":[3.7235076E3,1.9273171E3,1.2573289E3,1.3507322E3,2.9499237E2,2.0840704E2,4.5393945E2,0E0,0E0,0E0,0E0,0E0,0E0,0E0,0E0],"parents":[2147483647,0,0,1,1,2,2,3,3,4,4,5,5,6,6],"right_children":[2,4,6,8,10,12,14,-1,-1,-1,-1,-1,-1,-1,-1],"split_conditions":[6.2939864E-1,7.533782E-1,3.1931365E-1,4.7396165E-1,6.3340086E-1,2.3956189E-1,6.258599E-1,-1.3894646E0,-3.050203E-1,4.0473748E-2,9.354462E-1,-7.5915897E-1,1.6551948E-1,5.6190246E-1,1.5092093E0],"split_indices":[0,3,2,1,2,1,1,0,0,0,0,0,0,0,0],"split_type":[0,0,0,0,0,0,0,0,0,0,0,0,0,0,0],"sum_hessian":[1E2,6.1E1,3.9E1,4.7E1,1.4E1,1.4E1,2.5E1,2E1,2.7E1,7E0,7E0,2E0,1.2E1,1E1,1.5E1],"tree_param":{"num_deleted":"0","num_feature":"6","num_nodes":"15","size_leaf_vector":"1"}},{"base_weights":[3.3407606E-2,-8.780121E0,3.5342147E0,-1.254081E1,-3.807308E-1,-4.9054775E0,6.1838617E0,-1.4004166E0,4.195951E-2,-2.1724935E-1,7.8725666E-1,-1.0012822E0,2.7303073E-1,5.2063998E-2,9.566919E-1],"categories":[],"categories_nodes":[],"categories_segments":[],"categories_sizes":[],"default_left":[0,0,0,0,0,0,0,0,0,0,0,0,0,0,0],"id":5,"left_children":[1,3,5,7,9,11,13,-1,-1,-1,-1,-1,-1,-1,-1],"loss_changes":[3.1473315E3,9.1126245E2,1.662776E3,3.851897E2,1.6498259E2,7.293126E2,1.0679231E3,0E0,0E0,0E0,0E0,0E0,0E0,0E0,0E0],"parents":[2147483647,0,0,1,1,2,2,3,3,4,4,5,5,6,6],"right_children":[2,4,6,8,10,12,14,-1,-1,-1,-1,-1,-1,-1,-1],"split_conditions":[3.1098232E-1,6.6350174E-1,2.286428E-1,8.0839735E-1,9.9005383E-1,3.762596E-1,3.701587E-1,-1.4004166E0,4.195951E-2,-2.1724935E-1,7.8725666E-1,-1.0012822E0,2.7303073E-1,5.2063998E-2,9.566919E-1],"split_indices":[0,3,2,5,3,4,3,0,0,0,0,0,0,0,0],"split_type":[0,0,0,0,0,0,0,0,0,0,0,0,0,0,0],"sum_hessian":[1E2,2.8E1,7.2E1,1.9E1,9E0,1.7E1,5.5E1,1.7E1,2E0,8E0,1E0,1E1,7E0,2.1E1,3.4E1],"tree_param":{"num_deleted":"0","num_feature":"6","num_nodes":"15","size_leaf_vector":"1"}},{"base_weights":[2.5036652E-2,-3.7462575E0,7.243656E0,-6.8659678E0,3.4143438E0,3.2149043E0,1.3057147E1,-1.1602892E0,-2.2333585E-1,1.24230124E-1,1.011642E0,-9.0369545E-2,5.6329393E-1,-7.94178E-2,1.4183725E0],"categories":[],"categories_nodes":[],"categories_segments":[],"categories_sizes":[],"default_left":[0,0,0,0,0,0,0,0,0,0,0,0,0,0,0],"id":6,"left_children":[1,3,5,7,9,11,13,-1,-1,-1,-1,-1,-1,-1,-1],"loss_changes":[2.776714E3,1.520156E3,7.7776135E2,1.0054697E3,2.9313348E2,2.2418669E2,2.2972876E2,0E0,0E0,0E0,0E0,0E0,0E0,0E0,0E0],"parents":[2147483647,0,0,1,1,2,2,3,3,4,4,5,5,6,6],"right_children":[2,4,6,8,10,12,14,-1,-1,-1,-1,-1,-1,-1,-1],"split_conditions":[6.7213553E-1,7.2960615E-1,6.775644E-1,5.107473E-1,9.6217257E-1,1.9967379E-1,2.1582103E-1,-1.1602892E0,-2.2333585E-1,1.24230124E-1,1.011642E0,-9.0369545E-2,5.6329393E-1,-7.94178E-2,1.4183725E0],"split_indices":[0,2,2,3,2,2,3,0,0,0,0,0,0,0,0],"split_type":[0,0,0,0,0,0,0,0,0,0,0,0,0,0,0],"sum_hessian":[1E2,6.6E1,3.4E1,4.6E1,2E1,2.1E1,1.3E1,2.2E1,2.4E1,1.6E1,4E0,8E0,1.3E1,1E0,1.2E1],"tree_param":{"num_deleted":"0","num_feature":"6","num_nodes":"15","size_leaf_vector":"1"}},{"base_weights":[3.801939E-2,-4.6854854E0,4.949704E0,-1.2589007E1,-1.442372E0,-9.586031E-1,8.601848E0,-1.5313315E0,-4.0777293E-1,-6.4896965E-1,4.526305E-1,-5.074377E-1,3.664609E-1,4.395043E-1,1.1807743E0],"categories":[],"categories_nodes":[],"categories_segments":[],"categories_sizes":[],"default_left":[0,0,0,0,0,0,0,0,0,0,0,0,0,0,0],"id":7,"left_children":[1,3,5,7,9,11,13,-1,-1,-1,-1,-1,-1,-1,-1],"loss_changes":[2.3664287E3,1.3147069E3,1.087145E3,2.853667E2,1.1741565E3,3.9915753E2,3.6618823E2,0E0,0E0,0E0,0E0,0E0,0E0,0E0,0E0],"parents":[2147483647,0,0,1,1,2,2,3,3,4,4,5,5,6,6],"right_children":[2,4,6,8,10,12,14,-1,-1,-1,-1,-1,-1,-1,-1],"split_conditions":[5.277011E-1,2.9321077E-1,3.1931365E-1,7.616196E-1,6.0617465E-1,3.762596E-1,6.258599E-1,-1.5313315E0,-4.0777293E-1,-6.4896965E-1,4.526305E-1,-5.074377E-1,3.664609E-1,4.395043E-1,1.1807743E0],"split_indices":[0,2,2,1,1,4,1,0,0,0,0,0,0,0,0],"split_type":[0,0,0,0,0,0,0,0,0,0,0,0,0,0,0],"sum_hessian":[1E2,5.1E1,4.9E1,1.4E1,3.7E1,1.9E1,3E1,1E1,4E0,2E1,1.7E1,1E1,9E0,1.4E1,1.6E1],"tree_param":{"num_deleted":"0","num_feature":"6","num_nodes":"15","size_leaf_vector":"1"}},{"base_weights":[2.7721066E-2,-3.1866803E0,6.1802115E0,-7.9721236E0,1.1555661E0,3.2641923E0,1.314384E0,-1.3131975E0,-4.219614E-1,-3.6627826E-1,4.388278E-1,-2.6439914E-1,5.580049E-1],"categories":[],"categories_nodes":[],"categories_segments":[],"categories_sizes":[],"default_left":[0,0,0,0,0,0,0,0,0,0,0,0,0],"id":8,"left_children":[1,3,5,7,9,11,-1,-1,-1,-1,-1,-1,-1],"loss_changes":[2.0171283E3,1.4014438E3,6.678085E2,5.641843E2,5.7682135E2,3.7049884E2,0E0,0E0,0E0,0E0,0E0,0E0,0E0],"parents":[2147483647,0,0,1,1,2,2,3,3,4,4,5,5],"right_children":[2,4,6,8,10,12,-1,-1,-1,-1,-1,-1,-1],"split_conditions":[6.9701576E-1,5.0525236E-1,7.7714694E-1,4.7396165E-1,3.3089802E-1,1.2887973E-1,1.314384E0,-1.3131975E0,-4.219614E-1,-3.6627826E-1,4.388278E-1,-2.6439914E-1,5.580049E-1],"split_indices":[2,0,0,1,4,5,0,0,0,0,0,0,0],"split_type":[0,0,0,0,0,0,0,0,0,0,0,0,0],"sum_hessian":[1E2,6.6E1,3.4E1,3.1E1,3.5E1,2.5E1,9E0,1.2E1,1.9E1,1.4E1,2.1E1,7E0,1.8E1],"tree_param":{"num_deleted":"0","num_feature":"6","num_nodes":"13","size_leaf_vector":"1"}},{"base_weights":[2.4408245E-2,-2.8928268E0,5.608132E0,-7.2291346E0,1.0420254E0,8.5137844E-1,9.133128E0,-9.270034E-1,5.23181E-3,-9.825358E-1,2.3277076E-1,-5.0128174E-1,2.5902557E-1,1.5002593E-2,1.1369528E0],"categories":[],"categories_nodes":[],"categories_segments":[],"categories_sizes":[],"default_left":[0,0,0,0,0,0,0,0,0,0,0,0,0,0,0],"id":9,"left_children":[1,3,5,7,9,11,13,-1,-1,-1,-1,-1,-1,-1,-1],"loss_changes":[1.6614158E3,1.1507358E3,5.7908813E2,4.7602795E2,5.258625E2,1.7613835E2,4.0009045E2,0E0,0E0,0E0,0E0,0E0,0E0,0E0,0E0],"parents":[2147483647,0,0,1,1,2,2,3,3,4,4,5,5,6,6],"right_children":[2,4,6,8,10,12,14,-1,-1,-1,-1,-1,-1,-1,-1],"split_conditions":[6.9701576E-1,5.0525236E-1,4.2818415E-1,6.6350174E-1,4.600264E-2,1.2887973E-1,8.350071E-2,-9.270034E-1,5.23181E-3,-9.825358E-1,2.3277076E-1,-5.0128174E-1,2.5902557E-1,1.5002593E-2,1.1369528E0],"split_indices":[2,0,0,3,4,5,5,0,0,0,0,0,0,0,0],"split_type":[0,0,0,0,0,0,0,0,0,0,0,0,0,0,0],"sum_hessian":[1E2,6.6E1,3.4E1,3.1E1,3.5E1,1.5E1,1.9E1,2.4E1,7E0,3E0,3.2E1,3E0,1.2E1,4E0,1.5E1],"tree_param":{"num_deleted":"0","num_feature":"6","num_nodes":"15","size_leaf_vector":"1"}},{"base_weights":[1.4423409E-2,-5.846395E0,2.3424962E0,-8.778926E0,-2.4962477E-1,-3.7006254E0,4.243098E0,-1.0753123E0,-1.1005485E-1,-2.5826702E-1,4.4788724E-1,-7.554758E-1,2.0613848E-1,7.8937046E-2,7.431418E-1],"categories":[],"categories_nodes":[],"categories_segments":[],"categories_sizes":[],"default_left":[0,0,0,0,0,0,0,0,0,0,0,0,0,0,0],"id":10,"left_children":[1,3,5,7,9,11,13,-1,-1,-1,-1,-1,-1,-1,-1],"loss_changes":[1.3917808E3,4.7377686E2,8.5414856E2,2.7617957E2,1.3291724E2,4.1530914E2,6.107828E2,0E0,0E0,0E0,0E0,0E0,0E0,0E0,0E0],"parents":[2147483647,0,0,1,1,2,2,3,3,4,4,5,5,6,6],"right_children":[2,4,6,8,10,12,14,-1,-1,-1,-1,-1,-1,-1,-1],"split_conditions":[3.1098232E-1,6.918952E-1,2.286428E-1,6.5998405E-1,7.2960615E-1,3.762596E-1,6.311386E-1,-1.0753123E0,-1.1005485E-1,-2.5826702E-1,4.4788724E-1,-7.554758E-1,2.0613848E-1,7.8937046E-2,7.431418E-1],"split_indices":[0,1,2,5,2,4,1,0,0,0,0,0,0,0,0],"split_type":[0,0,0,0,0,0,0,0,0,0,0,0,0,0,0],"sum_hessian":[1E2,2.8E1,7.2E1,1.8E1,1E1,1.7E1,5.5E1,1.4E1,4E0,7E0,3E0,1E1,7E0,2.7E1,2.8E1],"tree_param":{"num_deleted":"0","num_feature":"6","num_nodes":"15","size_leaf_vector":"1"}},{"base_weights":[5.823343E-3,-2.4884005E0,4.780314E0,-6.137879E0,8.247028E-1,6.605489E-1,7.83711E0,-1.0483828E0,-3.0061188E-1,-8.5218495E-1,1.9326273E-1,-4.3231946E-1,2.143197E-1,7.4876407E-3,9.772989E-1],"categories":[],"categories_nodes":[],"categories_segments":[],"categories_sizes":[],"default_left":[0,0,0,0,0,0,0,0,0,0,0,0,0,0,0],"id":11,"left_children":[1,3,5,7,9,11,13,-1,-1,-1,-1,-1,-1,-1,-1],"loss_changes":[1.2146688E3,8.151655E2,4.35588E2,4.040193E2,3.892594E2,1.2749165E2,2.998031E2,0E0,0E0,0E0,0E0,0E0,0E0,0E0,0E0],"parents":[2147483647,0,0,1,1,2,2,3,3,4,4,5,5,6,6],"right_children":[2,4,6,8,10,12,14,-1,-1,-1,-1,-1,-1,-1,-1],"split_conditions":[6.9701576E-1,5.0525236E-1,4.2818415E-1,4.7396165E-1,4.600264E-2,1.2887973E-1,8.350071E-2,-1.0483828E0,-3.0061188E-1,-8.5218495E-1,1.9326273E-1,-4.3231946E-1,2.143197E-1,7.4876407E-3,9.772989E-1],"split_indices":[2,0,0,1,4,5,5,0,0,0,0,0,0,0,0],"split_type":[0,0,0,0,0,0,0,0,0,0,0,0,0,0,0],"sum_hessian":[1E2,6.6E1,3.4E1,3.1E1,3.5E1,1.5E1,1.9E1,1.2E1,1.9E1,3E0,3.2E1,3E0,1.2E1,4E0,1.5E1],"tree_param":{"num_deleted":"0","num_feature":"6","num_nodes":"15","size_leaf_vector":"1"}},{"base_weights":[-7.047068E-3,-4.5617647E0,2.2704153E0,-8.976923E0,-1.0223078E0,-1.1676607E0,5.9522433E0,-1.1018074E0,-2.6910096E-1,-6.0597706E-1,1.0608312E-1,-3.3417544E-1,5.725926E-1,3.144567E-1,8.117275E-1],"categories":[],"categories_nodes":[],"categories_segments":[],"categories_sizes":[],"default_left":[0,0,0,0,0,0,0,0,0,0,0,0,0,0,0],"id":12,"left_children":[1,3,5,7,9,11,13,-1,-1,-1,-1,-1,-1,-1,-1],"loss_changes":[1.0580502E3,5.221497E2,8.6772174E2,1.628075E2,2.1630309E2,5.586775E2,1.7507214E2,0E0,0E0,0E0,0E0,0E0,0E0,0E0,0E0],"parents":[2147483647,0,0,1,1,2,2,3,3,4,4,5,5,6,6],"right_children":[2,4,6,8,10,12,14,-1,-1,-1,-1,-1,-1,-1,-1],"split_conditions":[3.1931365E-1,5.277011E-1,6.311386E-1,7.616196E-1,2.3956189E-1,7.257195E-1,5.139895E-1,-1.1018074E0,-2.6910096E-1,-6.0597706E-1,1.0608312E-1,-3.3417544E-1,5.725926E-1,3.144567E-1,8.117275E-1],"split_indices":[2,0,1,1,1,5,0,0,0,0,0,0,0,0,0],"split_type":[0,0,0,0,0,0,0,0,0,0,0,0,0,0,0],"sum_hessian":[1E2,3.3E1,6.7E1,1.4E1,1.9E1,3.5E1,3.2E1,1E1,4E0,5E0,1.4E1,2.7E1,8E0,1.5E1,1.7E1],"tree_param":{"num_deleted":"0","num_feature":"6","num_nodes":"15","size_leaf_vector":"1"}},{"base_weights":[-1.1354768E-2,-4.1606135E0,2.0634415E0,-8.170626E0,-9.450737E-1,-1.0442724E0,5.391146E0,-1.0016431E0,-2.4757294E-1,-3.8259178E-1,2.318362E-1,-4.115253E-1,3.5294506E-1,2.849767E-1,7.350642E-1],"categories":[],"categories_nodes":[],"categories_segments":[],"categories_sizes":[],"default_left":[0,0,0,0,0,0,0,0,0,0,0,0,0,0,0],"id":13,"left_children":[1,3,5,7,9,11,13,-1,-1,-1,-1,-1,-1,-1,-1],"loss_changes":[8.7808075E2,4.306861E2,7.088555E2,1.3287714E2,1.9689885E2,5.2017395E2,1.4338654E2,0E0,0E0,0E0,0E0,0E0,0E0,0E0,0E0],"parents":[2147483647,0,0,1,1,2,2,3,3,4,4,5,5,6,6],"right_children":[2,4,6,8,10,12,14,-1,-1,-1,-1,-1,-1,-1,-1],"split_conditions":[3.1931365E-1,5.277011E-1,6.311386E-1,7.616196E-1,3.762596E-1,6.2755805E-1,5.139895E-1,-1.0016431E0,-2.4757294E-1,-3.8259178E-1,2.318362E-1,-4.115253E-1,3.5294506E-1,2.849767E-1,7.350642E-1],"split_indices":[2,0,1,1,4,3,0,0,0,0,0,0,0,0,0],"split_type":[0,0,0,0,0,0,0,0,0,0,0,0,0,0,0],"sum_hessian":[1E2,3.3E1,6.7E1,1.4E1,1.9E1,3.5E1,3.2E1,1E1,4E0,1E1,9E0,2.1E1,1.4E1,1.5E1,1.7E1],"tree_param":{"num_deleted":"0","num_feature":"6","num_nodes":"15","size_leaf_vector":"1"}},{"base_weights":[-1.455968E-2,-2.008954E0,3.8036969E0,-3.3810852E0,3.9507508E0,4.9146032E-1,6.2633014E0,-7.786848E-1,-1.3739301E-1,1.152146E-1,5.5558604E-1,-3.775961E-1,1.7667083E-1,1.010994E-2,7.797533E-1],"categories":[],"categories_nodes":[],"categories_segments":[],"categories_sizes":[],"default_left":[0,0,0,0,0,0,0,0,0,0,0,0,0,0,0],"id":14,"left_children":[1,3,5,7,9,11,13,-1,-1,-1,-1,-1,-1,-1,-1],"loss_changes":[7.767675E2,5.612501E2,2.8205954E2,4.75669E2,5.1995728E1,9.374335E1,1.8829657E2,0E0,0E0,0E0,0E0,0E0,0E0,0E0,0E0],"parents":[2147483647,0,0,1,1,2,2,3,3,4,4,5,5,6,6],"right_children":[2,4,6,8,10,12,14,-1,-1,-1,-1,-1,-1,-1,-1],"split_conditions":[6.9701576E-1,8.521815E-1,4.2818415E-1,3.1098232E-1,2.2879817E-1,1.2887973E-1,3.1897563E-1,-7.786848E-1,-1.3739301E-1,1.152146E-1,5.5558604E-1,-3.775961E-1,1.7667083E-1,1.010994E-2,7.797533E-1],"split_indices":[2,5,0,0,0,5,3,0,0,0,0,0,0,0,0],"split_type":[0,0,0,0,0,0,0,0,0,0,0,0,0,0,0],"sum_hessian":[1E2,6.6E1,3.4E1,5.4E1,1.2E1,1.5E1,1.9E1,1.6E1,3.8E1,5E0,7E0,3E0,1.2E1,4E0,1.5E1],"tree_param":{"num_deleted":"0","num_feature":"6","num_nodes":"15","size_leaf_vector":"1"}},{"base_weights":[-9.7017195E-3,-3.3900065E0,1.9975058E0,-9.170327E0,-1.7889557E0,-5.544698E0,3.4968898E0,-1.0023012E0,-1.6007672E-1,-4.3940392E-1,9.2793755E-2,-9.171974E-1,-9.933059E-2,-5.3805877E-2,5.0625896E-1],"categories":[],"categories_nodes":[],"categories_segments":[],"categories_sizes":[],"default_left":[0,0,0,0,0,0,0,0,0,0,0,0,0,0,0],"id":15,"left_children":[1,3,5,7,9,11,13,-1,-1,-1,-1,-1,-1,-1,-1],"loss_changes":[6.9205383E2,3.3526898E2,7.431435E2,3.5591125E1,2.2348715E2,1.7249011E2,3.4386993E2,0E0,0E0,0E0,0E0,0E0,0E0,0E0,0E0],"parents":[2147483647,0,0,1,1,2,2,3,3,4,4,5,5,6,6],"right_children":[2,4,6,8,10,12,14,-1,-1,-1,-1,-1,-1,-1,-1],"split_conditions":[3.701587E-1,1.9579114E-1,1.6261694E-1,7.616196E-1,6.0617465E-1,3.8089085E-1,2.4773099E-1,-1.0023012E0,-1.6007672E-1,-4.3940392E-1,9.2793755E-2,-9.171974E-1,-9.933059E-2,-5.3805877E-2,5.0625896E-1],"split_indices":[3,2,1,1,1,5,5,0,0,0,0,0,0,0,0],"split_type":[0,0,0,0,0,0,0,0,0,0,0,0,0,0,0],"sum_hessian":[1E2,3.7E1,6.3E1,7E0,3E1,1E1,5.3E1,6E0,1E0,1.5E1,1.5E1,5E0,5E0,1.5E1,3.8E1],"tree_param":{"num_deleted":"0","num_feature":"6","num_nodes":"15","size_leaf_vector":"1"}},{"base_weights":[-2.9256802E-2,-1.7661577E0,3.2965038E0,-2.878029E0,3.5697546E0,4.750631E-1,5.388831E0,-6.364147E-1,-1.19525574E-1,2.4486065E-2,4.650846E-1,-5.280323E-2,4.9978206E-1,1.2521515E-2,6.6969097E-1],"categories":[],"categories_nodes":[],"categories_segments":[],"categories_sizes":[],"default_left":[0,0,0,0,0,0,0,0,0,0,0,0,0,0,0],"id":16,"left_children":[1,3,5,7,9,11,13,-1,-1,-1,-1,-1,-1,-1,-1],"loss_changes":[5.8925037E2,4.0777463E2,2.0405817E2,3.2090866E2,4.1995346E1,7.522712E1,1.3686584E2,0E0,0E0,0E0,0E0,0E0,0E0,0E0,0E0],"parents":[2147483647,0,0,1,1,2,2,3,3,4,4,5,5,6,6],"right_children":[2,4,6,8,10,12,14,-1,-1,-1,-1,-1,-1,-1,-1],"split_conditions":[6.9701576E-1,8.685991E-1,4.2818415E-1,3.1098232E-1,1.00778E-1,7.7224475E-1,3.1897563E-1,-6.364147E-1,-1.19525574E-1,2.4486065E-2,4.650846E-1,-5.280323E-2,4.9978206E-1,1.2521515E-2,6.6969097E-1],"split_indices":[2,5,0,0,4,4,3,0,0,0,0,0,0,0,0],"split_type":[0,0,0,0,0,0,0,0,0,0,0,0,0,0,0],"sum_hessian":[1E2,6.6E1,3.4E1,5.5E1,1.1E1,1.5E1,1.9E1,1.7E1,3.8E1,3E0,8E0,1.3E1,2E0,4E0,1.5E1],"tree_param":{"num_deleted":"0","num_feature":"6","num_nodes":"15","size_leaf_vector":"1"}},{"base_weights":[-1.778952E-2,-2.3909419E0,2.2644298E0,-4.425633E0,1.8190837E0,-8.4435636E-1,4.2338076E0,-5.5946696E-1,8.8274546E-2,-2.4299279E-1,2.9031524E-1,-3.8038072E-1,2.191854E-1,2.6639488E-1,6.323297E-1],"categories":[],"categories_nodes":[],"categories_segments":[],"categories_sizes":[],"default_left":[0,0,0,0,0,0,0,0,0,0,0,0,0,0,0],"id":17,"left_children":[1,3,5,7,9,11,13,-1,-1,-1,-1,-1,-1,-1,-1],"loss_changes":[5.524356E2,4.3635562E2,3.2193826E2,2.15932E2,8.53602E1,1.970332E2,8.812158E1,0E0,0E0,0E0,0E0,0E0,0E0,0E0,0E0],"parents":[2147483647,0,0,1,1,2,2,3,3,4,4,5,5,6,6],"right_children":[2,4,6,8,10,12,14,-1,-1,-1,-1,-1,-1,-1,-1],"split_conditions":[6.0617465E-1,6.5998405E-1,3.720181E-1,8.4922343E-1,1.1586906E-1,5.139895E-1,4.951769E-1,-5.5946696E-1,8.8274546E-2,-2.4299279E-1,2.9031524E-1,-3.8038072E-1,2.191854E-1,2.6639488E-1,6.323297E-1],"split_indices":[1,5,2,3,1,0,5,0,0,0,0,0,0,0,0],"split_type":[0,0,0,0,0,0,0,0,0,0,0,0,0,0,0],"sum_hessian":[1E2,4.9E1,5.1E1,3.3E1,1.6E1,2E1,3.1E1,2.7E1,6E0,3E0,1.3E1,1E1,1E1,1.9E1,1.2E1],"tree_param":{"num_deleted":"0","num_feature":"6","num_nodes":"15","size_leaf_vector":"1"}},{"base_weights":[-1.2904856E-2,-2.8387249E0,1.6651274E0,-7.7527437E0,-1.4790193E0,-4.5707335E0,2.9045599E0,-8.4115475E-1,-1.5705585E-1,-3.3612508E-1,7.527777E-2,-7.788596E-1,-5.9108227E-2,-3.2775164E-2,4.1561604E-1],"categories":[],"categories_nodes":[],"categories_segments":[],"categories_sizes":[],"default_left":[0,0,0,0,0,0,0,0,0,0,0,0,0,0,0],"id":18,"left_children":[1,3,5,7,9,11,13,-1,-1,-1,-1,-1,-1,-1,-1],"loss_changes":[4.836504E2,2.4243506E2,5.0792734E2,1.9371948E1,1.3275377E2,1.3626201E2,2.1982263E2,0E0,0E0,0E0,0E0,0E0,0E0,0E0,0E0],"parents":[2147483647,0,0,1,1,2,2,3,3,4,4,5,5,6,6],"right_children":[2,4,6,8,10,12,14,-1,-1,-1,-1,-1,-1,-1,-1],"split_conditions":[3.701587E-1,1.9579114E-1,1.6261694E-1,7.616196E-1,6.258599E-1,3.8089085E-1,2.4773099E-1,-8.4115475E-1,-1.5705585E-1,-3.3612508E-1,7.527777E-2,-7.788596E-1,-5.9108227E-2,-3.2775164E-2,4.1561604E-1],"split_indices":[3,2,1,1,1,5,5,0,0,0,0,0,0,0,0],"split_type":[0,0,0,0,0,0,0,0,0,0,0,0,0,0,0],"sum_hessian":[1E2,3.7E1,6.3E1,7E0,3E1,1E1,5.3E1,6E0,1E0,1.6E1,1.4E1,5E0,5E0,1.5E1,3.8E1],"tree_param":{"num_deleted":"0","num_feature":"6","num_nodes":"15","size_leaf_vector":"1"}},{"base_weights":[-2.8587379E-2,-5.1316E0,7.8358036E-1,-7.0994835E0,-1.6951218E-1,-1.6374768E0,2.6563332E0,-7.4979746E-1,-1.7565326E-1,-1.2974845E-1,2.1711884E-1,-3.879729E-1,1.4924805E-1,-2.2705052E-2,3.6755508E-1],"categories":[],"categories_nodes":[],"categories_segments":[],"categories_sizes":[],"default_left":[0,0,0,0,0,0,0,0,0,0,0,0,0,0,0],"id":19,"left_children":[1,3,5,7,9,11,13,-1,-1,-1,-1,-1,-1,-1,-1],"loss_changes":[4.2261575E2,1.3550394E2,4.033454E2,8.120758E0,1.6018309E1,2.794984E2,1.4777429E2,0E0,0E0,0E0,0E0,0E0,0E0,0E0,0E0],"parents":[2147483647,0,0,1,1,2,2,3,3,4,4,5,5,6,6],"right_children":[2,4,6,8,10,12,14,-1,-1,-1,-1,-1,-1,-1,-1],"split_conditions":[1.504169E-1,5.277011E-1,5.552008E-1,7.616196E-1,4.921163E-1,5.495289E-1,2.2649577E-1,-7.4979746E-1,-1.7565326E-1,-1.2974845E-1,2.1711884E-1,-3.879729E-1,1.4924805E-1,-2.2705052E-2,3.6755508E-1],"split_indices":[3,0,1,1,2,5,5,0,0,0,0,0,0,0,0],"split_type":[0,0,0,0,0,0,0,0,0,0,0,0,0,0,0],"sum_hessian":[1E2,1.3E1,8.7E1,9E0,4E0,3.8E1,4.9E1,8E0,1E0,3E0,1E0,2.2E1,1.6E1,1.3E1,3.6E1],"tree_param":{"num_deleted":"0","num_feature":"6","num_nodes":"15","size_leaf_vector":"1"}},{"base_weights":[-3.2974962E-2,-1.4091179E0,2.720281E0,-3.9380515E0,5.9801448E-2,1.440436E0,6.1153574E0,-5.695435E-1,-1.8098831E-2,-2.7632424E-1,1.615281E-1,3.9836373E-2,4.8476163E-1,1.6452026E-1,8.076234E-1],"categories":[],"categories_nodes":[],"categories_segments":[],"categories_sizes":[],"default_left":[0,0,0,0,0,0,0,0,0,0,0,0,0,0,0],"id":20,"left_children":[1,3,5,7,9,11,13,-1,-1,-1,-1,-1,-1,-1,-1],"loss_changes":[3.8650943E2,2.5284187E2,1.3892703E2,1.6403418E2,1.9767563E2,9.038261E1,6.5601776E1,0E0,0E0,0E0,0E0,0E0,0E0,0E0,0E0],"parents":[2147483647,0,0,1,1,2,2,3,3,4,4,5,5,6,6],"right_children":[2,4,6,8,10,12,14,-1,-1,-1,-1,-1,-1,-1,-1],"split_conditions":[6.981617E-1,3.2078007E-1,7.7714694E-1,6.2939864E-1,4.0348285E-1,7.7224475E-1,6.715732E-1,-5.695435E-1,-1.8098831E-2,-2.7632424E-1,1.615281E-1,3.9836373E-2,4.8476163E-1,1.6452026E-1,8.076234E-1],"split_indices":[2,4,0,0,3,4,1,0,0,0,0,0,0,0,0],"split_type":[0,0,0,0,0,0,0,0,0,0,0,0,0,0,0],"sum_hessian":[1E2,6.7E1,3.3E1,2.4E1,4.3E1,2.5E1,8E0,1.6E1,8E0,1.5E1,2.8E1,2E1,5E0,3E0,5E0],"tree_param":{"num_deleted":"0","num_feature":"6","num_nodes":"15","size_leaf_vector":"1"}},{"base_weights":[-2.1813722E-2,-2.914906E0,1.1277957E0,-3.3482735E0,4.6096918E-1,-2.0862424E0,2.2175944E0,-4.290553E-1,-4.5625545E-2,-3.2238707E-1,1.7438905E-1,-7.72228E-2,3.3580837E-1],"categories":[],"categories_nodes":[],"categories_segments":[],"categories_sizes":[],"default_left":[0,0,0,0,0,0,0,0,0,0,0,0,0],"id":21,"left_children":[1,3,5,7,-1,9,11,-1,-1,-1,-1,-1,-1],"loss_changes":[3.3920596E2,1.1000108E2,2.6032022E2,7.434491E1,0E0,8.841016E1,1.9013553E2,0E0,0E0,0E0,0E0,0E0,0E0],"parents":[2147483647,0,0,1,1,2,2,3,3,5,5,6,6],"right_children":[2,4,6,8,-1,10,12,-1,-1,-1,-1,-1,-1],"split_conditions":[3.1098232E-1,9.9005383E-1,2.4185228E-1,6.5998405E-1,4.6096918E-1,4.972485E-1,2.4773099E-1,-4.290553E-1,-4.5625545E-2,-3.2238707E-1,1.7438905E-1,-7.72228E-2,3.3580837E-1],"split_indices":[0,3,3,5,0,4,5,0,0,0,0,0,0],"split_type":[0,0,0,0,0,0,0,0,0,0,0,0,0],"sum_hessian":[1E2,2.8E1,7.2E1,2.7E1,1E0,1.8E1,5.4E1,2E1,7E0,1.4E1,4E0,1.5E1,3.9E1],"tree_param":{"num_deleted":"0","num_feature":"6","num_nodes":"13","size_leaf_vector":"1"}},{"base_weights":[-1.8673321E-2,-2.5032015E0,1.2238654E0,-5.1694937E0,-6.0647327E-1,-5.2090985E-1,3.0901697E0,-8.402719E-1,-7.358807E-2,-2.3403636E-1,6.40564E-2,-2.256948E-1,1.5521297E-1,1.1389232E-1,4.8596415E-1],"categories":[],"categories_nodes":[],"categories_segments":[],"categories_sizes":[],"default_left":[0,0,0,0,0,0,0,0,0,0,0,0,0,0,0],"id":22,"left_children":[1,3,5,7,9,11,13,-1,-1,-1,-1,-1,-1,-1,-1],"loss_changes":[3.1486295E2,1.6881071E2,2.2303683E2,1.9450479E2,4.690589E1,1.3306259E2,1.08403534E2,0E0,0E0,0E0,0E0,0E0,0E0,0E0,0E0],"parents":[2147483647,0,0,1,1,2,2,3,3,4,4,5,5,6,6],"right_children":[2,4,6,8,10,12,14,-1,-1,-1,-1,-1,-1,-1,-1],"split_conditions":[3.1931365E-1,3.2078007E-1,5.139895E-1,7.616196E-1,4.9261808E-1,6.0617465E-1,5.0267905E-1,-8.402719E-1,-7.358807E-2,-2.3403636E-1,6.40564E-2,-2.256948E-1,1.5521297E-1,1.1389232E-1,4.8596415E-1],"split_indices":[2,4,0,1,0,1,3,0,0,0,0,0,0,0,0],"split_type":[0,0,0,0,0,0,0,0,0,0,0,0,0,0,0],"sum_hessian":[1E2,3.3E1,6.7E1,1.3E1,2E1,3.5E1,3.2E1,7E0,6E0,8E0,1.2E1,1.9E1,1.6E1,1.6E1,1.6E1],"tree_param":{"num_deleted":"0","num_feature":"6","num_nodes":"15","size_leaf_vector":"1"}},{"base_weights":[-2.2295054E-2,-1.1692864E0,2.2723432E0,-3.139383E0,2.0466484E-1,7.2450083E-1,4.1846437E0,-4.2888045E-1,1.7899628E-1,-2.5659603E-1,1.3060927E-1,-1.2862372E-2,3.3095995E-1,1.5920258E-1,6.9202036E-1],"categories":[],"categories_nodes":[],"categories_segments":[],"categories_sizes":[],"default_left":[0,0,0,0,0,0,0,0,0,0,0,0,0,0,0],"id":23,"left_children":[1,3,5,7,9,11,13,-1,-1,-1,-1,-1,-1,-1,-1],"loss_changes":[2.6848196E2,1.8470609E2,9.760614E1,1.6632187E2,1.2846877E2,4.4533913E1,9.536676E1,0E0,0E0,0E0,0E0,0E0,0E0,0E0,0E0],"parents":[2147483647,0,0,1,1,2,2,3,3,4,4,5,5,6,6],"right_children":[2,4,6,8,10,12,14,-1,-1,-1,-1,-1,-1,-1,-1],"split_conditions":[6.981617E-1,5.085707E-1,7.224521E-1,8.511367E-1,2.3724909E-1,7.7127033E-1,3.8509774E-1,-4.2888045E-1,1.7899628E-1,-2.5659603E-1,1.3060927E-1,-1.2862372E-2,3.3095995E-1,1.5920258E-1,6.9202036E-1],"split_indices":[2,1,1,0,5,4,5,0,0,0,0,0,0,0,0],"split_type":[0,0,0,0,0,0,0,0,0,0,0,0,0,0,0],"sum_hessian":[1E2,6.7E1,3.3E1,2.7E1,4E1,1.9E1,1.4E1,2.2E1,5E0,1.1E1,2.9E1,1.5E1,4E0,8E0,6E0],"tree_param":{"num_deleted":"0","num_feature":"6","num_nodes":"15","size_leaf_vector":"1"}},{"base_weights":[-1.2209108E-2,-2.1257992E0,1.0447655E0,-4.5440044E0,-4.1243398E-1,4.673873E-1,5.316679E-1,-7.313748E-1,-7.2943985E-2,-1.7621471E-1,9.747731E-2,-6.2172897E-2,3.1037053E-1],"categories":[],"categories_nodes":[],"categories_segments":[],"categories_sizes":[],"default_left":[0,0,0,0,0,0,0,0,0,0,0,0,0],"id":24,"left_children":[1,3,5,7,9,11,-1,-1,-1,-1,-1,-1,-1],"loss_changes":[2.278561E2,1.3899706E2,1.6523773E2,1.4258017E2,4.103665E1,1.7707635E2,0E0,0E0,0E0,0E0,0E0,0E0,0E0],"parents":[2147483647,0,0,1,1,2,2,3,3,4,4,5,5],"right_children":[2,4,6,8,10,12,-1,-1,-1,-1,-1,-1,-1],"split_conditions":[3.1931365E-1,3.2078007E-1,9.0041804E-1,7.616196E-1,5.360964E-1,7.533782E-1,5.316679E-1,-7.313748E-1,-7.2943985E-2,-1.7621471E-1,9.747731E-2,-6.2172897E-2,3.1037053E-1],"split_indices":[2,4,0,1,3,3,0,0,0,0,0,0,0],"split_type":[0,0,0,0,0,0,0,0,0,0,0,0,0],"sum_hessian":[1E2,3.3E1,6.7E1,1.3E1,2E1,6E1,7E0,7E0,6E0,1E1,1E1,4.3E1,1.7E1],"tree_param":{"num_deleted":"0","num_feature":"6","num_nodes":"13","size_leaf_vector":"1"}},{"base_weights":[-1.2010405E-2,-2.2875803E0,8.921476E-1,-2.640737E0,3.8004074E-1,3.4606996E-1,5.2857695E0,-3.3752155E-1,-3.8263943E-2,-8.786708E-2,2.1476834E-1,1.14898935E-1,6.473198E-1],"categories":[],"categories_nodes":[],"categories_segments":[],"categories_sizes":[],"default_left":[0,0,0,0,0,0,0,0,0,0,0,0,0],"id":25,"left_children":[1,3,5,7,-1,9,11,-1,-1,-1,-1,-1,-1],"loss_changes":[2.0984578E2,7.238632E1,1.7331664E2,4.514717E1,0E0,1.4751672E2,3.1859406E1,0E0,0E0,0E0,0E0,0E0,0E0],"parents":[2147483647,0,0,1,1,2,2,3,3,5,5,6,6],"right_children":[2,4,6,8,-1,10,12,-1,-1,-1,-1,-1,-1],"split_conditions":[3.1098232E-1,9.9005383E-1,9.472486E-1,6.5998405E-1,3.8004074E-1,4.972485E-1,3.7461263E-1,-3.3752155E-1,-3.8263943E-2,-8.786708E-2,2.1476834E-1,1.14898935E-1,6.473198E-1],"split_indices":[0,3,1,5,0,4,0,0,0,0,0,0,0],"split_type":[0,0,0,0,0,0,0,0,0,0,0,0,0],"sum_hessian":[1E2,2.8E1,7.2E1,2.7E1,1E0,6.5E1,7E0,2E1,7E0,3.9E1,2.6E1,2E0,5E0],"tree_param":{"num_deleted":"0","num_feature":"6","num_nodes":"13","size_leaf_vector":"1"}},{"base_weights":[-1.9638138E-3,-1.7274376E0,1.0662178E0,-3.0329742E0,1.4627676E0,-1.1975857E0,2.0709872E0,-5.253063E-1,-1.8822858E-1,1.0893679E-2,3.3363435E-1,-3.1436086E-1,3.6173027E-2,9.203509E-2,3.536543E-1],"categories":[],"categories_nodes":[],"categories_segments":[],"categories_sizes":[],"default_left":[0,0,0,0,0,0,0,0,0,0,0,0,0,0,0],"id":26,"left_children":[1,3,5,7,9,11,13,-1,-1,-1,-1,-1,-1,-1,-1],"loss_changes":[1.8799689E2,1.668688E2,1.4578001E2,6.1641876E1,3.0074604E1,6.1826424E1,7.094328E1,0E0,0E0,0E0,0E0,0E0,0E0,0E0,0E0],"parents":[2147483647,0,0,1,1,2,2,3,3,4,4,5,5,6,6],"right_children":[2,4,6,8,10,12,14,-1,-1,-1,-1,-1,-1,-1,-1],"split_conditions":[5.085707E-1,7.2821635E-1,2.3724909E-1,1.9228902E-1,7.5237453E-1,3.5846573E-1,6.095643E-1,-5.253063E-1,-1.8822858E-1,1.0893679E-2,3.3363435E-1,-3.1436086E-1,3.6173027E-2,9.203509E-2,3.536543E-1],"split_indices":[1,3,5,4,5,0,2,0,0,0,0,0,0,0,0],"split_type":[0,0,0,0,0,0,0,0,0,0,0,0,0,0,0],"sum_hessian":[1E2,3.8E1,6.2E1,2.7E1,1.1E1,1.9E1,4.3E1,8E0,1.9E1,7E0,4E0,8E0,1.1E1,2.5E1,1.8E1],"tree_param":{"num_deleted":"0","num_feature":"6","num_nodes":"15","size_leaf_vector":"1"}},{"base_weights":[-3.762009E-3,-2.4115155E0,6.972771E-1,-4.8350234E0,-7.966431E-1,-1.6537939E0,1.5222808E0,-6.667358E-1,-2.0356841E-1,-1.4319898E-1,2.2220738E-1,-4.2747745E-1,6.681728E-2,1.0470551E-1,4.4209623E-1],"categories":[],"categories_nodes":[],"categories_segments":[],"categories_sizes":[],"default_left":[0,0,0,0,0,0,0,0,0,0,0,0,0,0,0],"id":27,"left_children":[1,3,5,7,9,11,13,-1,-1,-1,-1,-1,-1,-1,-1],"loss_changes":[1.7216237E2,8.616231E1,1.5574928E2,3.2591293E1,3.1950966E1,1.306587E2,7.664514E1,0E0,0E0,0E0,0E0,0E0,0E0,0E0,0E0],"parents":[2147483647,0,0,1,1,2,2,3,3,4,4,5,5,6,6],"right_children":[2,4,6,8,10,12,14,-1,-1,-1,-1,-1,-1,-1,-1],"split_conditions":[2.2426932E-1,3.7646335E-1,2.9122913E-1,5.187906E-1,8.0683476E-1,3.8089085E-1,8.967884E-1,-6.667358E-1,-2.0356841E-1,-1.4319898E-1,2.2220738E-1,-4.2747745E-1,6.681728E-2,1.0470551E-1,4.4209623E-1],"split_indices":[3,0,1,4,5,5,0,0,0,0,0,0,0,0,0],"split_type":[0,0,0,0,0,0,0,0,0,0,0,0,0,0,0],"sum_hessian":[1E2,2.2E1,7.8E1,8E0,1.4E1,2E1,5.8E1,4E0,4E0,1.2E1,2E0,9E0,1.1E1,5.1E1,7E0],"tree_param":{"num_deleted":"0","num_feature":"6","num_nodes":"15","size_leaf_vector":"1"}},{"base_weights":[-9.3775075E-3,-5.449218E-1,2.8697593E0,-9.975208E-1,2.9945824E0,3.8188988E-1,4.324292E0,-2.0166497E-1,9.644459E-2,-8.506012E-3,3.7751254E-1,-8.8498406E-2,1.5532914E-1,2.3436622E-1,5.8361894E-1],"categories":[],"categories_nodes":[],"categories_segments":[],"categories_sizes":[],"default_left":[0,0,0,0,0,0,0,0,0,0,0,0,0,0,0],"id":28,"left_children":[1,3,5,7,9,11,13,-1,-1,-1,-1,-1,-1,-1,-1],"loss_changes":[1.5729623E2,1.407571E2,5.624759E1,1.5590622E2,2.4359047E1,1.1762764E1,1.6267029E1,0E0,0E0,0E0,0E0,0E0,0E0,0E0,0E0],"parents":[2147483647,0,0,1,1,2,2,3,3,4,4,5,5,6,6],"right_children":[2,4,6,8,10,12,14,-1,-1,-1,-1,-1,-1,-1,-1],"split_conditions":[8.6707234E-1,9.0041804E-1,3.881699E-1,6.576129E-1,1.9967379E-1,3.677158E-1,5.8991766E-1,-2.0166497E-1,9.644459E-2,-8.506012E-3,3.7751254E-1,-8.8498406E-2,1.5532914E-1,2.3436622E-1,5.8361894E-1],"split_indices":[2,0,0,4,2,1,1,0,0,0,0,0,0,0,0],"split_type":[0,0,0,0,0,0,0,0,0,0,0,0,0,0,0],"sum_hessian":[1E2,8.5E1,1.5E1,7.6E1,9E0,6E0,9E0,5E1,2.6E1,2E0,7E0,3E0,3E0,5E0,4E0],"tree_param":{"num_deleted":"0","num_feature":"6","num_nodes":"15","size_leaf_vector":"1"}},{"base_weights":[2.9334645E-3,-1.6438761E0,8.2629514E-1,-3.4737408E0,-3.4568658E-1,-6.895379E-2,2.4704578E0,-5.665898E-1,-4.7216963E-2,-8.514199E-2,2.0165348E-1,-7.3703334E-2,1.8296842E-1,1.4915644E-1,4.6346903E-1],"categories":[],"categories_nodes":[],"categories_segments":[],"categories_sizes":[],"default_left":[0,0,0,0,0,0,0,0,0,0,0,0,0,0,0],"id":29,"left_children":[1,3,5,7,9,11,13,-1,-1,-1,-1,-1,-1,-1,-1],"loss_changes":[1.3830624E2,7.956656E1,1.0026192E2,8.944354E1,2.6804651E1,5.8428387E1,4.3932327E1,0E0,0E0,0E0,0E0,0E0,0E0,0E0,0E0],"parents":[2147483647,0,0,1,1,2,2,3,3,4,4,5,5,6,6],"right_children":[2,4,6,8,10,12,14,-1,-1,-1,-1,-1,-1,-1,-1],"split_conditions":[3.1931365E-1,3.2078007E-1,7.224521E-1,7.616196E-1,8.034809E-1,7.257195E-1,7.533782E-1,-5.665898E-1,-4.7216963E-2,-8.514199E-2,2.0165348E-1,-7.3703334E-2,1.8296842E-1,1.4915644E-1,4.6346903E-1],"split_indices":[2,4,1,1,1,5,3,0,0,0,0,0,0,0,0],"split_type":[0,0,0,0,0,0,0,0,0,0,0,0,0,0,0],"sum_hessian":[1E2,3.3E1,6.7E1,1.3E1,2E1,4.4E1,2.3E1,7E0,6E0,1.7E1,3E0,3.3E1,1.1E1,1.7E1,6E0],"tree_param":{"num_deleted":"0","num_feature":"6","num_nodes":"15","size_leaf_vector":"1"}},{"base_weights":[4.863588E-3,-1.8088255E0,6.910586E-1,-2.2854238E0,1.6221199E0,2.8670102E-1,3.991171E0,-4.8073998E-1,-1.4145598E-1,3.1012496E-1,9.532674E-3,-6.0375076E-2,1.62825E-1,7.886556E-2,4.9272332E-1],"categories":[],"categories_nodes":[],"categories_segments":[],"categories_sizes":[],"default_left":[0,0,0,0,0,0,0,0,0,0,0,0,0,0,0],"id":30,"left_children":[1,3,5,7,9,11,13,-1,-1,-1,-1,-1,-1,-1,-1],"loss_changes":[1.26949E2,4.9492332E1,9.760321E1,4.8107086E1,8.737668E0,8.1020226E1,2.0096146E1,0E0,0E0,0E0,0E0,0E0,0E0,0E0,0E0],"parents":[2147483647,0,0,1,1,2,2,3,3,4,4,5,5,6,6],"right_children":[2,4,6,8,10,12,14,-1,-1,-1,-1,-1,-1,-1,-1],"split_conditions":[3.0461377E-1,8.9552325E-1,9.472486E-1,3.2078007E-1,5.8083612E-2,4.972485E-1,3.7461263E-1,-4.8073998E-1,-1.4145598E-1,3.1012496E-1,9.532674E-3,-6.0375076E-2,1.62825E-1,7.886556E-2,4.9272332E-1],"split_indices":[0,3,1,4,0,4,0,0,0,0,0,0,0,0,0],"split_type":[0,0,0,0,0,0,0,0,0,0,0,0,0,0,0],"sum_hessian":[1E2,2.7E1,7.3E1,2.4E1,3E0,6.6E1,7E0,5E0,1.9E1,1E0,2E0,4E1,2.6E1,2E0,5E0],"tree_param":{"num_deleted":"0","num_feature":"6","num_nodes":"15","size_leaf_vector":"1"}},{"base_weights":[8.054526E-3,-1.3490797E0,8.1372714E-1,-3.7929823E0,-6.748766E-1,-2.1821496E0,1.4089293E0,-4.7883916E-1,-1.6004753E-1,-1.6383906E-1,3.308172E-2,-4.180266E-1,1.7965825E-2,1.0902977E-3,2.1675466E-1],"categories":[],"categories_nodes":[],"categories_segments":[],"categories_sizes":[],"default_left":[0,0,0,0,0,0,0,0,0,0,0,0,0,0,0],"id":31,"left_children":[1,3,5,7,9,11,13,-1,-1,-1,-1,-1,-1,-1,-1],"loss_changes":[1.1153179E2,6.00523E1,1.17196236E2,9.795837E0,3.0581009E1,5.2661846E1,5.724697E1,0E0,0E0,0E0,0E0,0E0,0E0,0E0,0E0],"parents":[2147483647,0,0,1,1,2,2,3,3,4,4,5,5,6,6],"right_children":[2,4,6,8,10,12,14,-1,-1,-1,-1,-1,-1,-1,-1],"split_conditions":[3.701587E-1,1.9579114E-1,1.6261694E-1,3.5846573E-1,6.0617465E-1,3.8089085E-1,3.0087832E-1,-4.7883916E-1,-1.6004753E-1,-1.6383906E-1,3.308172E-2,-4.180266E-1,1.7965825E-2,1.0902977E-3,2.1675466E-1],"split_indices":[3,2,1,0,1,5,5,0,0,0,0,0,0,0,0],"split_type":[0,0,0,0,0,0,0,0,0,0,0,0,0,0,0],"sum_hessian":[1E2,3.7E1,6.3E1,7E0,3E1,1E1,5.3E1,4E0,3E0,1.5E1,1.5E1,5E0,5E0,1.9E1,3.4E1],"tree_param":{"num_deleted":"0","num_feature":"6","num_nodes":"15","size_leaf_vector":"1"}},{"base_weights":[-2.1745285E-3,-4.340371E-1,2.3192227E0,-8.114944E-1,2.5157878E0,3.4304756E-1,3.470623E0,-1.3528727E-1,1.5163943E-1,-8.080928E-3,3.1750384E-1,-1.0226059E-1,1.0938301E-1,2.2816086E-2,3.8055453E-1],"categories":[],"categories_nodes":[],"categories_segments":[],"categories_sizes":[],"default_left":[0,0,0,0,0,0,0,0,0,0,0,0,0,0,0],"id":32,"left_children":[1,3,5,7,9,11,13,-1,-1,-1,-1,-1,-1,-1,-1],"loss_changes":[1.02261604E2,9.779678E1,3.5215317E1,9.909218E1,1.7374653E1,8.295719E0,9.991447E0,0E0,0E0,0E0,0E0,0E0,0E0,0E0,0E0],"parents":[2147483647,0,0,1,1,2,2,3,3,4,4,5,5,6,6],"right_children":[2,4,6,8,10,12,14,-1,-1,-1,-1,-1,-1,-1,-1],"split_conditions":[8.6707234E-1,9.0041804E-1,3.881699E-1,8.623637E-1,1.9967379E-1,2.8185478E-1,1.7052412E-1,-1.3528727E-1,1.5163943E-1,-8.080928E-3,3.1750384E-1,-1.0226059E-1,1.0938301E-1,2.2816086E-2,3.8055453E-1],"split_indices":[2,0,0,4,2,1,1,0,0,0,0,0,0,0,0],"split_type":[0,0,0,0,0,0,0,0,0,0,0,0,0,0,0],"sum_hessian":[1E2,8.5E1,1.5E1,7.6E1,9E0,6E0,9E0,6.2E1,1.4E1,2E0,7E0,2E0,4E0,1E0,8E0],"tree_param":{"num_deleted":"0","num_feature":"6","num_nodes":"15","size_leaf_vector":"1"}},{"base_weights":[5.3318515E-3,-1.3436747E0,6.797567E-1,-2.8025613E0,-3.070991E-1,-7.966432E-2,1.9891475E0,-4.631853E-1,-3.1157631E-2,-7.323939E-2,1.6835022E-1,-6.421684E-2,1.4738604E-1,8.778422E-2,3.1199083E-1],"categories":[],"categories_nodes":[],"categories_segments":[],"categories_sizes":[],"default_left":[0,0,0,0,0,0,0,0,0,0,0,0,0,0,0],"id":33,"left_children":[1,3,5,7,9,11,13,-1,-1,-1,-1,-1,-1,-1,-1],"loss_changes":[9.2803535E1,5.0555706E1,6.777623E1,6.2351173E1,1.9011427E1,3.9396477E1,2.8676712E1,0E0,0E0,0E0,0E0,0E0,0E0,0E0,0E0],"parents":[2147483647,0,0,1,1,2,2,3,3,4,4,5,5,6,6],"right_children":[2,4,6,8,10,12,14,-1,-1,-1,-1,-1,-1,-1,-1],"split_conditions":[3.1931365E-1,3.2078007E-1,7.132448E-1,7.616196E-1,8.034809E-1,7.7513283E-1,5.139895E-1,-4.631853E-1,-3.1157631E-2,-7.323939E-2,1.6835022E-1,-6.421684E-2,1.4738604E-1,8.778422E-2,3.1199083E-1],"split_indices":[2,4,1,1,1,3,0,0,0,0,0,0,0,0,0],"split_type":[0,0,0,0,0,0,0,0,0,0,0,0,0,0,0],"sum_hessian":[1E2,3.3E1,6.7E1,1.3E1,2E1,4.3E1,2.4E1,7E0,6E0,1.7E1,3E0,3.2E1,1.1E1,1.3E1,1.1E1],"tree_param":{"num_deleted":"0","num_feature":"6","num_nodes":"15","size_leaf_vector":"1"}},{"base_weights":[5.627925E-3,-9.353752E-1,8.7550575E-1,-3.8301675E0,-3.6171538E-1,-1.9241409E-1,1.7659365E0,-4.5601892E-1,-1.0934015E-1,-1.575874E-1,5.2694734E-2,-3.1475288E-1,3.5362557E-2,8.8881366E-2,3.3435887E-1],"categories":[],"categories_nodes":[],"categories_segments":[],"categories_sizes":[],"default_left":[0,0,0,0,0,0,0,0,0,0,0,0,0,0,0],"id":34,"left_children":[1,3,5,7,9,11,13,-1,-1,-1,-1,-1,-1,-1,-1],"loss_changes":[8.349326E1,7.9985245E1,5.073795E1,1.099707E1,4.614745E1,4.145329E1,3.7158226E1,0E0,0E0,0E0,0E0,0E0,0E0,0E0,0E0],"parents":[2147483647,0,0,1,1,2,2,3,3,4,4,5,5,6,6],"right_children":[2,4,6,8,10,12,14,-1,-1,-1,-1,-1,-1,-1,-1],"split_conditions":[5.139895E-1,1.3949387E-1,4.9262512E-1,5.187906E-1,3.4825546E-1,1.8485446E-1,7.798755E-1,-4.5601892E-1,-1.0934015E-1,-1.575874E-1,5.2694734E-2,-3.1475288E-1,3.5362557E-2,8.8881366E-2,3.3435887E-1],"split_indices":[0,3,5,4,5,1,1,0,0,0,0,0,0,0,0],"split_type":[0,0,0,0,0,0,0,0,0,0,0,0,0,0,0],"sum_hessian":[1E2,4.8E1,5.2E1,7E0,4.1E1,2.4E1,2.8E1,5E0,2E0,1.7E1,2.4E1,3E0,2.1E1,1.9E1,9E0],"tree_param":{"num_deleted":"0","num_feature":"6","num_nodes":"15","size_leaf_vector":"1"}},{"base_weights":[-1.4711135E-4,-1.5999073E0,4.6560773E-1,-3.3064284E0,-4.6933416E-1,-7.065819E-1,1.2373673E0,-5.017777E-1,-1.6144581E-1,-9.2070274E-2,1.643041E-1,-3.5387063E-1,8.308939E-3,6.324363E-2,2.5260532E-1],"categories":[],"categories_nodes":[],"categories_segments":[],"categories_sizes":[],"default_left":[0,0,0,0,0,0,0,0,0,0,0,0,0,0,0],"id":35,"left_children":[1,3,5,7,9,11,13,-1,-1,-1,-1,-1,-1,-1,-1],"loss_changes":[7.599963E1,4.2823162E1,7.234154E1,1.7958961E1,1.5814649E1,7.186034E1,3.58216E1,0E0,0E0,0E0,0E0,0E0,0E0,0E0,0E0],"parents":[2147483647,0,0,1,1,2,2,3,3,4,4,5,5,6,6],"right_children":[2,4,6,8,10,12,14,-1,-1,-1,-1,-1,-1,-1,-1],"split_conditions":[2.2426932E-1,3.7646335E-1,3.4825546E-1,4.9161586E-1,8.0683476E-1,2.1233912E-1,7.224521E-1,-5.017777E-1,-1.6144581E-1,-9.2070274E-2,1.643041E-1,-3.5387063E-1,8.308939E-3,6.324363E-2,2.5260532E-1],"split_indices":[3,0,5,4,5,1,1,0,0,0,0,0,0,0,0],"split_type":[0,0,0,0,0,0,0,0,0,0,0,0,0,0,0],"sum_hessian":[1E2,2.2E1,7.8E1,8E0,1.4E1,3.1E1,4.7E1,3E0,5E0,1.2E1,2E0,6E0,2.5E1,3.3E1,1.4E1],"tree_param":{"num_deleted":"0","num_feature":"6","num_nodes":"15","size_leaf_vector":"1"}},{"base_weights":[-6.276499E-3,-1.1982528E0,5.89804E-1,-1.9656972E0,1.9267243E-1,-2.0128377E-1,1.4349359E0,-2.663563E-1,9.3975835E-2,-1.1264389E-1,9.0410404E-2,-7.801619E-2,1.18527226E-1,2.9580219E-2,2.4896617E-1],"categories":[],"categories_nodes":[],"categories_segments":[],"categories_sizes":[],"default_left":[0,0,0,0,0,0,0,0,0,0,0,0,0,0,0],"id":36,"left_children":[1,3,5,7,9,11,13,-1,-1,-1,-1,-1,-1,-1,-1],"loss_changes":[7.246863E1,3.6672302E1,4.575183E1,4.7110695E1,1.3218366E1,2.9819996E1,3.8912178E1,0E0,0E0,0E0,0E0,0E0,0E0,0E0,0E0],"parents":[2147483647,0,0,1,1,2,2,3,3,4,4,5,5,6,6],"right_children":[2,4,6,8,10,12,14,-1,-1,-1,-1,-1,-1,-1,-1],"split_conditions":[3.1931365E-1,6.451728E-1,5.139895E-1,9.361548E-1,2.9122913E-1,6.454723E-1,5.0267905E-1,-2.663563E-1,9.3975835E-2,-1.1264389E-1,9.0410404E-2,-7.801619E-2,1.18527226E-1,2.9580219E-2,2.4896617E-1],"split_indices":[2,0,0,4,1,4,3,0,0,0,0,0,0,0,0],"split_type":[0,0,0,0,0,0,0,0,0,0,0,0,0,0,0],"sum_hessian":[1E2,3.3E1,6.7E1,2.1E1,1.2E1,3.5E1,3.2E1,1.7E1,4E0,4E0,8E0,2.5E1,1E1,1.6E1,1.6E1],"tree_param":{"num_deleted":"0","num_feature":"6","num_nodes":"15","size_leaf_vector":"1"}},{"base_weights":[-4.4159843E-3,-4.2361698E-1,1.520152E0,-7.292151E-1,2.0682364E0,1.6555643E-1,2.1412594E0,-1.3429764E-1,4.0832315E-2,-2.8867086E-3,2.671533E-1,-5.8728736E-2,2.7177316E-1,9.766766E-2,3.7253544E-1],"categories":[],"categories_nodes":[],"categories_segments":[],"categories_sizes":[],"default_left":[0,0,0,0,0,0,0,0,0,0,0,0,0,0,0],"id":37,"left_children":[1,3,5,7,9,11,13,-1,-1,-1,-1,-1,-1,-1,-1],"loss_changes":[6.519311E1,6.242865E1,1.815519E1,5.0817104E1,1.1463692E1,1.6967203E1,2.4033684E1,0E0,0E0,0E0,0E0,0E0,0E0,0E0,0E0],"parents":[2147483647,0,0,1,1,2,2,3,3,4,4,5,5,6,6],"right_children":[2,4,6,8,10,12,14,-1,-1,-1,-1,-1,-1,-1,-1],"split_conditions":[8.12901E-1,9.0041804E-1,3.677158E-1,6.576129E-1,1.9967379E-1,9.6217257E-1,6.967372E-1,-1.3429764E-1,4.0832315E-2,-2.8867086E-3,2.671533E-1,-5.8728736E-2,2.7177316E-1,9.766766E-2,3.7253544E-1],"split_indices":[2,0,1,4,2,2,3,0,0,0,0,0,0,0,0],"split_type":[0,0,0,0,0,0,0,0,0,0,0,0,0,0,0],"sum_hessian":[1E2,7.9E1,2.1E1,7.1E1,8E0,7E0,1.4E1,4.6E1,2.5E1,2E0,6E0,6E0,1E0,9E0,5E0],"tree_param":{"num_deleted":"0","num_feature":"6","num_nodes":"15","size_leaf_vector":"1"}},{"base_weights":[4.482156E-3,-1.2472484E0,4.7804937E-1,-1.6182795E0,1.3835077E0,1.9754137E-1,2.7675476E0,-3.4920344E-1,-9.75239E-2,2.3199157E-1,2.9806647E-2,-1.1912776E-2,2.2515345E-1,8.385417E-2,3.2707927E-1],"categories":[],"categories_nodes":[],"categories_segments":[],"categories_sizes":[],"default_left":[0,0,0,0,0,0,0,0,0,0,0,0,0,0,0],"id":38,"left_children":[1,3,5,7,9,11,13,-1,-1,-1,-1,-1,-1,-1,-1],"loss_changes":[6.0466877E1,2.9569485E1,4.6977764E1,2.6716934E1,3.3741746E0,4.3847443E1,5.023407E0,0E0,0E0,0E0,0E0,0E0,0E0,0E0,0E0],"parents":[2147483647,0,0,1,1,2,2,3,3,4,4,5,5,6,6],"right_children":[2,4,6,8,10,12,14,-1,-1,-1,-1,-1,-1,-1,-1],"split_conditions":[3.0461377E-1,8.9552325E-1,9.472486E-1,3.2078007E-1,5.8083612E-2,8.9114314E-1,3.7461263E-1,-3.4920344E-1,-9.75239E-2,2.3199157E-1,2.9806647E-2,-1.1912776E-2,2.2515345E-1,8.385417E-2,3.2707927E-1],"split_indices":[0,3,1,4,0,5,0,0,0,0,0,0,0,0,0],"split_type":[0,0,0,0,0,0,0,0,0,0,0,0,0,0,0],"sum_hessian":[1E2,2.7E1,7.3E1,2.4E1,3E0,6.6E1,7E0,5E0,1.9E1,1E0,2E0,5.8E1,8E0,2E0,5E0],"tree_param":{"num_deleted":"0","num_feature":"6","num_nodes":"15","size_leaf_vector":"1"}},{"base_weights":[8.381948E-3,-3.6061215E-1,1.3497977E0,-6.780987E-1,1.4949862E0,1.778245E-1,1.8848635E0,-1.2917022E-1,3.8638804E-2,-4.33218E-2,2.1858564E-1,-5.022774E-2,2.4692689E-1,8.64584E-2,3.2711858E-1],"categories":[],"categories_nodes":[],"categories_segments":[],"categories_sizes":[],"default_left":[0,0,0,0,0,0,0,0,0,0,0,0,0,0,0],"id":39,"left_children":[1,3,5,7,9,11,13,-1,-1,-1,-1,-1,-1,-1,-1],"loss_changes":[5.0479176E1,4.8143944E1,1.3460648E1,4.5568024E1,1.6932611E1,1.3707582E1,1.838832E1,0E0,0E0,0E0,0E0,0E0,0E0,0E0,0E0],"parents":[2147483647,0,0,1,1,2,2,3,3,4,4,5,5,6,6],"right_children":[2,4,6,8,10,12,14,-1,-1,-1,-1,-1,-1,-1,-1],"split_conditions":[8.12901E-1,8.8708645E-1,3.677158E-1,6.576129E-1,2.4773099E-1,9.6217257E-1,6.967372E-1,-1.2917022E-1,3.8638804E-2,-4.33218E-2,2.1858564E-1,-5.022774E-2,2.4692689E-1,8.64584E-2,3.2711858E-1],"split_indices":[2,0,1,4,5,2,3,0,0,0,0,0,0,0,0],"split_type":[0,0,0,0,0,0,0,0,0,0,0,0,0,0,0],"sum_hessian":[1E2,7.9E1,2.1E1,6.8E1,1.1E1,7E0,1.4E1,4.3E1,2.5E1,3E0,8E0,6E0,1E0,9E0,5E0],"tree_param":{"num_deleted":"0","num_feature":"6","num_nodes":"15","size_leaf_vector":"1"}},{"base_weights":[1.4426279E-2,-1.0941384E0,4.3368825E-1,-1.4256684E0,1.2514582E0,1.8971418E-1,2.42276E0,-3.0933884E-1,-8.540689E-2,2.0403595E-1,3.0837122E-2,-8.8101085E-3,1.9898681E-1,7.968776E-2,2.8319082E-1],"categories":[],"categories_nodes":[],"categories_segments":[],"categories_sizes":[],"default_left":[0,0,0,0,0,0,0,0,0,0,0,0,0,0,0],"id":40,"left_children":[1,3,5,7,9,11,13,-1,-1,-1,-1,-1,-1,-1,-1],"loss_changes":[4.74172E1,2.3557957E1,3.5451233E1,2.1189728E1,2.3468218E0,3.3682693E1,3.0651245E0,0E0,0E0,0E0,0E0,0E0,0E0,0E0,0E0],"parents":[2147483647,0,0,1,1,2,2,3,3,4,4,5,5,6,6],"right_children":[2,4,6,8,10,12,14,-1,-1,-1,-1,-1,-1,-1,-1],"split_conditions":[3.0461377E-1,8.9552325E-1,9.472486E-1,3.2078007E-1,5.8083612E-2,8.9114314E-1,3.7461263E-1,-3.0933884E-1,-8.540689E-2,2.0403595E-1,3.0837122E-2,-8.8101085E-3,1.9898681E-1,7.968776E-2,2.8319082E-1],"split_indices":[0,3,1,4,0,5,0,0,0,0,0,0,0,0,0],"split_type":[0,0,0,0,0,0,0,0,0,0,0,0,0,0,0],"sum_hessian":[1E2,2.7E1,7.3E1,2.4E1,3E0,6.6E1,7E0,5E0,1.9E1,1E0,2E0,5.8E1,8E0,2E0,5E0],"tree_param":{"num_deleted":"0","num_feature":"6","num_nodes":"15","size_leaf_vector":"1"}},{"base_weights":[1.6877316E-2,-8.137827E-1,5.308275E-1,-1.3607949E0,7.0232046E-1,-5.694439E-1,1.0188867E0,-1.9680375E-1,-3.3653133E-2,-1.8915653E-2,2.3096943E-1,-9.77525E-2,1.3072614E-1,6.9520615E-2,2.6304546E-1],"categories":[],"categories_nodes":[],"categories_segments":[],"categories_sizes":[],"default_left":[0,0,0,0,0,0,0,0,0,0,0,0,0,0,0],"id":41,"left_children":[1,3,5,7,9,11,13,-1,-1,-1,-1,-1,-1,-1,-1],"loss_changes":[4.3550682E1,3.329946E1,3.441104E1,1.7375008E1,1.6199198E1,1.6594837E1,2.1123154E1,0E0,0E0,0E0,0E0,0E0,0E0,0E0,0E0],"parents":[2147483647,0,0,1,1,2,2,3,3,4,4,5,5,6,6],"right_children":[2,4,6,8,10,12,14,-1,-1,-1,-1,-1,-1,-1,-1],"split_conditions":[5.085707E-1,7.7231836E-1,2.3724909E-1,6.118529E-1,7.5237453E-1,7.7714694E-1,8.2253724E-1,-1.9680375E-1,-3.3653133E-2,-1.8915653E-2,2.3096943E-1,-9.77525E-2,1.3072614E-1,6.9520615E-2,2.6304546E-1],"split_indices":[1,3,5,2,5,0,3,0,0,0,0,0,0,0,0],"split_type":[0,0,0,0,0,0,0,0,0,0,0,0,0,0,0],"sum_hessian":[1E2,3.8E1,6.2E1,2.8E1,1E1,1.9E1,4.3E1,1.7E1,1.1E1,7E0,3E0,1.6E1,3E0,3.7E1,6E0],"tree_param":{"num_deleted":"0","num_feature":"6","num_nodes":"15","size_leaf_vector":"1"}},{"base_weights":[1.8626902E-2,-1.1353592E0,3.5436174E-1,-2.4367857E0,-2.7881268E-1,-5.085419E-1,9.222483E-1,-3.9933237E-1,-9.929626E-2,-6.1203886E-2,1.2581049E-1,-2.6300684E-1,8.219763E-3,4.5827586E-2,1.9124359E-1],"categories":[],"categories_nodes":[],"categories_segments":[],"categories_sizes":[],"default_left":[0,0,0,0,0,0,0,0,0,0,0,0,0,0,0],"id":42,"left_children":[1,3,5,7,9,11,13,-1,-1,-1,-1,-1,-1,-1,-1],"loss_changes":[3.9533092E1,2.4959433E1,3.9181477E1,1.626107E1,8.452126E0,4.032081E1,2.117572E1,0E0,0E0,0E0,0E0,0E0,0E0,0E0,0E0],"parents":[2147483647,0,0,1,1,2,2,3,3,4,4,5,5,6,6],"right_children":[2,4,6,8,10,12,14,-1,-1,-1,-1,-1,-1,-1,-1],"split_conditions":[2.2426932E-1,3.7646335E-1,3.4825546E-1,4.9161586E-1,8.0683476E-1,2.1233912E-1,7.224521E-1,-3.9933237E-1,-9.929626E-2,-6.1203886E-2,1.2581049E-1,-2.6300684E-1,8.219763E-3,4.5827586E-2,1.9124359E-1],"split_indices":[3,0,5,4,5,1,1,0,0,0,0,0,0,0,0],"split_type":[0,0,0,0,0,0,0,0,0,0,0,0,0,0,0],"sum_hessian":[1E2,2.2E1,7.8E1,8E0,1.4E1,3.1E1,4.7E1,3E0,5E0,1.2E1,2E0,6E0,2.5E1,3.3E1,1.4E1],"tree_param":{"num_deleted":"0","num_feature":"6","num_nodes":"15","size_leaf_vector":"1"}},{"base_weights":[1.2291408E-2,-8.36609E-1,4.3656087E-1,-1.4495496E0,2.650296E-1,-6.593816E-1,7.591744E-1,-2.03934E-1,4.631151E-2,-9.897184E-2,7.404259E-2,-8.6777575E-2,1.23326495E-1,3.15446E-2,1.6802791E-1],"categories":[],"categories_nodes":[],"categories_segments":[],"categories_sizes":[],"default_left":[0,0,0,0,0,0,0,0,0,0,0,0,0,0,0],"id":43,"left_children":[1,3,5,7,9,11,13,-1,-1,-1,-1,-1,-1,-1,-1],"loss_changes":[3.6741646E1,2.3342299E1,2.4543068E1,2.576202E1,8.487346E0,7.380859E0,2.1132135E1,0E0,0E0,0E0,0E0,0E0,0E0,0E0,0E0],"parents":[2147483647,0,0,1,1,2,2,3,3,4,4,5,5,6,6],"right_children":[2,4,6,8,10,12,14,-1,-1,-1,-1,-1,-1,-1,-1],"split_conditions":[3.1931365E-1,6.451728E-1,2.4929222E-1,8.623637E-1,2.502429E-1,8.985542E-1,7.4649143E-1,-2.03934E-1,4.631151E-2,-9.897184E-2,7.404259E-2,-8.6777575E-2,1.23326495E-1,3.15446E-2,1.6802791E-1],"split_indices":[2,0,3,4,1,5,1,0,0,0,0,0,0,0,0],"split_type":[0,0,0,0,0,0,0,0,0,0,0,0,0,0,0],"sum_hessian":[1E2,3.3E1,6.7E1,2.1E1,1.2E1,1.5E1,5.2E1,1.6E1,5E0,3E0,9E0,1.4E1,1E0,3.6E1,1.6E1],"tree_param":{"num_deleted":"0","num_feature":"6","num_nodes":"15","size_leaf_vector":"1"}},{"base_weights":[1.1591505E-2,-9.143788E-1,3.61802E-1,-1.1905408E0,1.0402279E0,-2.0132613E-1,9.618075E-1,-2.6011956E-1,-7.078173E-2,1.627182E-1,3.0218253E-2,-5.08564E-2,8.7930724E-2,-2.2834091E-1,1.21986166E-1],"categories":[],"categories_nodes":[],"categories_segments":[],"categories_sizes":[],"default_left":[0,0,0,0,0,0,0,0,0,0,0,0,0,0,0],"id":44,"left_children":[1,3,5,7,9,11,13,-1,-1,-1,-1,-1,-1,-1,-1],"loss_changes":[3.3083565E1,1.6352495E1,2.5196754E1,1.5182735E1,1.2410893E0,1.3395632E1,3.2933342E1,0E0,0E0,0E0,0E0,0E0,0E0,0E0,0E0],"parents":[2147483647,0,0,1,1,2,2,3,3,4,4,5,5,6,6],"right_children":[2,4,6,8,10,12,14,-1,-1,-1,-1,-1,-1,-1,-1],"split_conditions":[3.0461377E-1,8.9552325E-1,5.360964E-1,3.2078007E-1,5.8083612E-2,7.5555116E-1,9.1286674E-2,-2.6011956E-1,-7.078173E-2,1.627182E-1,3.0218253E-2,-5.08564E-2,8.7930724E-2,-2.2834091E-1,1.21986166E-1],"split_indices":[0,3,3,4,0,5,1,0,0,0,0,0,0,0,0],"split_type":[0,0,0,0,0,0,0,0,0,0,0,0,0,0,0],"sum_hessian":[1E2,2.7E1,7.3E1,2.4E1,3E0,3.8E1,3.5E1,5E0,1.9E1,1E0,2E0,3E1,8E0,2E0,3.3E1],"tree_param":{"num_deleted":"0","num_feature":"6","num_nodes":"15","size_leaf_vector":"1"}},{"base_weights":[8.380965E-3,-2.6442367E-1,1.0000168E0,-4.708022E-1,1.4159851E0,-4.4063854E-1,1.2506802E0,-9.402128E-2,2.5764162E-2,2.9246712E-2,1.9289996E-1,-7.22229E-2,-1.0603205E-2,5.7028133E-2,2.1149436E-1],"categories":[],"categories_nodes":[],"categories_segments":[],"categories_sizes":[],"default_left":[0,0,0,0,0,0,0,0,0,0,0,0,0,0,0],"id":45,"left_children":[1,3,5,7,9,11,13,-1,-1,-1,-1,-1,-1,-1,-1],"loss_changes":[2.7587236E1,2.8410675E1,8.495729E0,2.4861868E1,4.6232586E0,3.0030853E-1,9.966719E0,0E0,0E0,0E0,0E0,0E0,0E0,0E0,0E0],"parents":[2147483647,0,0,1,1,2,2,3,3,4,4,5,5,6,6],"right_children":[2,4,6,8,10,12,14,-1,-1,-1,-1,-1,-1,-1,-1],"split_conditions":[8.12901E-1,9.0041804E-1,1.7052412E-1,6.2894285E-1,4.944203E-1,3.5058755E-1,6.967372E-1,-9.402128E-2,2.5764162E-2,2.9246712E-2,1.9289996E-1,-7.22229E-2,-1.0603205E-2,5.7028133E-2,2.1149436E-1],"split_indices":[2,0,1,4,3,0,3,0,0,0,0,0,0,0,0],"split_type":[0,0,0,0,0,0,0,0,0,0,0,0,0,0,0],"sum_hessian":[1E2,7.9E1,2.1E1,7.1E1,8E0,3E0,1.8E1,4.3E1,2.8E1,3E0,5E0,1E0,2E0,1.1E1,7E0],"tree_param":{"num_deleted":"0","num_feature":"6","num_nodes":"15","size_leaf_vector":"1"}},{"base_weights":[1.0905351E-2,-8.211527E-1,3.2559076E-1,-1.0714716E0,9.486284E-1,-1.6324608E0,4.608003E-1,-2.2727051E-1,-5.725186E-2,1.4400749E-1,3.0478796E-2,-2.4350081E-1,7.888641E-2,-6.2369495E-3,1.0492746E-1],"categories":[],"categories_nodes":[],"categories_segments":[],"categories_sizes":[],"default_left":[0,0,0,0,0,0,0,0,0,0,0,0,0,0,0],"id":46,"left_children":[1,3,5,7,9,11,13,-1,-1,-1,-1,-1,-1,-1,-1],"loss_changes":[2.6712849E1,1.3420696E1,2.0343533E1,1.3682812E1,8.26735E-1,1.1637029E1,2.1616482E1,0E0,0E0,0E0,0E0,0E0,0E0,0E0,0E0],"parents":[2147483647,0,0,1,1,2,2,3,3,4,4,5,5,6,6],"right_children":[2,4,6,8,10,12,14,-1,-1,-1,-1,-1,-1,-1,-1],"split_conditions":[3.0461377E-1,8.9552325E-1,9.717649E-2,2.6520237E-1,5.8083612E-2,7.3507106E-1,5.360964E-1,-2.2727051E-1,-5.725186E-2,1.4400749E-1,3.0478796E-2,-2.4350081E-1,7.888641E-2,-6.2369495E-3,1.0492746E-1],"split_indices":[0,3,1,2,0,0,3,0,0,0,0,0,0,0,0],"split_type":[0,0,0,0,0,0,0,0,0,0,0,0,0,0,0],"sum_hessian":[1E2,2.7E1,7.3E1,2.4E1,3E0,4E0,6.9E1,6E0,1.8E1,1E0,2E0,3E0,1E0,3.7E1,3.2E1],"tree_param":{"num_deleted":"0","num_feature":"6","num_nodes":"15","size_leaf_vector":"1"}},{"base_weights":[8.071805E-3,-6.322434E-1,4.0432927E-1,-1.0635852E0,5.624071E-1,-9.383636E-2,1.0303876E0,-2.048035E-1,-5.1818103E-2,-5.7635497E-2,1.2954646E-1,-3.211235E-2,1.3795684E-1,4.876455E-2,1.8248396E-1],"categories":[],"categories_nodes":[],"categories_segments":[],"categories_sizes":[],"default_left":[0,0,0,0,0,0,0,0,0,0,0,0,0,0,0],"id":47,"left_children":[1,3,5,7,9,11,13,-1,-1,-1,-1,-1,-1,-1,-1],"loss_changes":[2.5882332E1,2.0694973E1,1.9745174E1,1.450951E1,9.929208E0,1.2498906E1,1.1183237E1,0E0,0E0,0E0,0E0,0E0,0E0,0E0,0E0],"parents":[2147483647,0,0,1,1,2,2,3,3,4,4,5,5,6,6],"right_children":[2,4,6,8,10,12,14,-1,-1,-1,-1,-1,-1,-1,-1],"split_conditions":[5.085707E-1,7.1217924E-1,4.9262512E-1,3.1800348E-1,4.944203E-1,9.075665E-1,6.095643E-1,-2.048035E-1,-5.1818103E-2,-5.7635497E-2,1.2954646E-1,-3.211235E-2,1.3795684E-1,4.876455E-2,1.8248396E-1],"split_indices":[1,4,5,2,3,2,2,0,0,0,0,0,0,0,0],"split_type":[0,0,0,0,0,0,0,0,0,0,0,0,0,0,0],"sum_hessian":[1E2,3.8E1,6.2E1,2.8E1,1E1,3.5E1,2.7E1,9E0,1.9E1,4E0,6E0,3.1E1,4E0,1.7E1,1E1],"tree_param":{"num_deleted":"0","num_feature":"6","num_nodes":"15","size_leaf_vector":"1"}},{"base_weights":[8.772841E-3,-5.737551E-1,3.692461E-1,-8.654927E-1,8.835444E-1,-4.0483075E-1,7.127073E-1,-2.4098864E-1,-5.0364073E-2,-1.9899463E-2,1.7451973E-1,-8.30027E-2,7.256317E-2,4.883219E-2,1.8289839E-1],"categories":[],"categories_nodes":[],"categories_segments":[],"categories_sizes":[],"default_left":[0,0,0,0,0,0,0,0,0,0,0,0,0,0,0],"id":48,"left_children":[1,3,5,7,9,11,13,-1,-1,-1,-1,-1,-1,-1,-1],"loss_changes":[2.1420416E1,1.7345516E1,1.703804E1,1.7228064E1,6.8766956E0,1.0215662E1,1.0127817E1,0E0,0E0,0E0,0E0,0E0,0E0,0E0,0E0],"parents":[2147483647,0,0,1,1,2,2,3,3,4,4,5,5,6,6],"right_children":[2,4,6,8,10,12,14,-1,-1,-1,-1,-1,-1,-1,-1],"split_conditions":[5.085707E-1,8.0839735E-1,2.3724909E-1,1.4489487E-1,7.7231836E-1,6.451728E-1,8.2253724E-1,-2.4098864E-1,-5.0364073E-2,-1.9899463E-2,1.7451973E-1,-8.30027E-2,7.256317E-2,4.883219E-2,1.8289839E-1],"split_indices":[1,5,5,2,3,0,3,0,0,0,0,0,0,0,0],"split_type":[0,0,0,0,0,0,0,0,0,0,0,0,0,0,0],"sum_hessian":[1E2,3.8E1,6.2E1,3.2E1,6E0,1.9E1,4.3E1,5E0,2.7E1,3E0,3E0,1.4E1,5E0,3.7E1,6E0],"tree_param":{"num_deleted":"0","num_feature":"6","num_nodes":"15","size_leaf_vector":"1"}},{"base_weights":[8.731464E-3,-7.0383155E-1,2.7823192E-1,-1.2477735E0,-7.076291E-2,-5.99581E-1,5.1156706E-1,-1.8176137E-1,-9.007772E-3,-3.483839E-2,1.0633087E-1,-2.4106674E-1,-1.6866384E-2,1.7689986E-2,1.2640367E-1],"categories":[],"categories_nodes":[],"categories_segments":[],"categories_sizes":[],"default_left":[0,0,0,0,0,0,0,0,0,0,0,0,0,0,0],"id":49,"left_children":[1,3,5,7,9,11,13,-1,-1,-1,-1,-1,-1,-1,-1],"loss_changes":[1.9591469E1,9.553574E0,1.5463749E1,9.731798E0,4.7782288E0,1.208026E1,1.463418E1,0E0,0E0,0E0,0E0,0E0,0E0,0E0,0E0],"parents":[2147483647,0,0,1,1,2,2,3,3,4,4,5,5,6,6],"right_children":[2,4,6,8,10,12,14,-1,-1,-1,-1,-1,-1,-1,-1],"split_conditions":[3.0461377E-1,6.2894285E-1,2.1296416E-1,6.5998405E-1,7.2960615E-1,3.7646335E-1,7.4649143E-1,-1.8176137E-1,-9.007772E-3,-3.483839E-2,1.0633087E-1,-2.4106674E-1,-1.6866384E-2,1.7689986E-2,1.2640367E-1],"split_indices":[0,4,3,5,2,0,1,0,0,0,0,0,0,0,0],"split_type":[0,0,0,0,0,0,0,0,0,0,0,0,0,0,0],"sum_hessian":[1E2,2.7E1,7.3E1,1.4E1,1.3E1,1.5E1,5.8E1,9E0,5E0,1.1E1,2E0,2E0,1.3E1,4.1E1,1.7E1],"tree_param":{"num_deleted":"0","num_feature":"6","num_nodes":"15","size_leaf_vector":"1"}}]},"name":"gbtree"},"learner_model_param":{"base_score":"6.571518E1","boost_from_average":"1","num_class":"0","num_feature":"6","num_target":"1"},"objective":{"name":"reg:squarederror","reg_loss_param":{"scale_pos_weight":"1"}}},"version":[2,1,4]}